-9.302932948810460623e-03 2.608279706458983827e-02 -2.591658750072861270e-02 -3.387892655344064419e-02 -3.594690474499801641e-02 5.578079906163227464e-03 -1.325205221119505478e-02 2.828100769430196004e-02 2.413450177476417213e-02 4.066419275326457750e-02 3.213393425927998925e-02 -3.029159251104909800e-02 6.519223403439459996e-03 -1.118551216538428428e-02 4.152081068690435806e-02 -1.327747180323230608e-02 -9.892295682004677293e-03 4.180616848783923201e-03 3.710224212700576063e-02 2.044836846121518559e-02 8.295332738115834825e-03
-2.252873810605082044e-02 1.926664885811521510e-02 2.537761361308552011e-03 1.005517093226584308e-02 2.228089443296622785e-02 -3.065259720791391543e-02 -1.540515020871905533e-02 3.683283328727955663e-02 -2.382026482859402397e-02 -8.113160635098086437e-03 -2.979123599462645683e-02 1.167030145391358131e-02 -3.167025134977874412e-02 3.201333994765569180e-02 4.082266975769745232e-02 -3.969232616703897293e-02 3.129288574848700100e-02 1.775314564643222515e-02 -2.164901432810947129e-02 -1.466985679340573889e-03 1.504095611226398399e-02
-2.193307682732012487e-02 3.494028885789660088e-04 2.857956586412972733e-02 3.297314771683823587e-02 -4.137826981243594021e-02 -2.987367011195928360e-02 -2.382563079733591993e-03 3.512724017493661088e-02 -3.271021817420923655e-02 4.136485105283693731e-03 2.846305798496553963e-02 -3.762487112156175095e-03 -1.775519695765516437e-02 -1.263005086953204389e-02 -2.991831156883153348e-02 -4.238580266065145735e-02 -1.680991148942000135e-02 -1.388294564161385303e-02 2.287158783436837872e-02 6.133979178457579784e-03 -1.753521826542063164e-02
-2.865398631484972203e-02 -1.698531512829671783e-02 -1.182220658954381831e-03 -1.147464353263748932e-02 -3.505842399023836875e-02 4.208523640421858725e-02 1.845364237240916527e-02 2.486941355879963844e-02 -3.504813066130790106e-02 -1.871165171831732157e-02 2.737535325682213805e-02 -2.355441849207308425e-03 1.377433591581733036e-02 4.304275462077419845e-02 -2.178655485051301730e-02 2.125458531891231961e-02 -2.989078532877469802e-02 -2.022373829320636349e-02 -2.679177427131834710e-03 5.070246310061643502e-03 -3.447232839517192643e-02
1.578750780587338115e-02 -3.078177764474732125e-02 -3.853867039631488078e-02 4.848799296825814786e-03 2.260345977314319466e-02 4.221740963737279084e-03 4.998487909202778412e-03 1.336465057880377449e-02 2.183179650523829618e-02 -3.690327518846001770e-02 2.311657704925702828e-03 3.115009793800205262e-02 -3.990927862091232792e-02 4.239193513580931383e-02 -8.249982770799815790e-03 -2.433876812878550677e-02 3.582704770349690038e-02 1.855437258736671730e-02 3.679734754867124147e-02 7.425499338600212440e-03 -2.743599393932176847e-02
7.945226417398400243e-03 7.717406783070923648e-03 -3.439802574018063774e-02 -2.255001488244575553e-02 -3.077367450026126036e-02 -4.831343708896505829e-03 2.794979102448115482e-03 -3.138757184675419754e-02 -2.725465915839685865e-02 -7.860234692604259332e-03 7.088735160530865165e-03 -4.335172149485060078e-02 3.432574363784746119e-04 1.410044267721487221e-02 -9.084911897063778496e-03 -4.134430356805218754e-02 3.646413508602114328e-02 3.855108609745803994e-02 -1.742315217618681245e-03 9.411317708567200346e-03 1.341248020812652042e-02
3.706159442656420389e-02 -2.313747839608838036e-02 4.360558473322509454e-02 -2.942699643078807228e-02 3.215452968107161691e-02 2.922912486530637732e-02 -2.786567961863663581e-02 -3.824643865080495919e-02 4.248215494412560522e-02 1.744139926494511772e-02 -3.790685208752719165e-02 -3.733266950135066820e-02 -4.113107536972609307e-02 4.158637671374439126e-02 -1.511114772104646051e-02 -4.293993631508320058e-02 9.639392812371277985e-03 -3.208800693523558567e-02 1.351695893736281490e-02 -2.345423821081108959e-02 -9.187487910285896398e-03
3.097501423479961935e-02 -3.817206395444447398e-02 -1.926288553466503142e-02 2.833912161934686036e-02 3.795274826590849804e-02 7.322034245298827959e-03 7.924299012484078975e-03 1.953626171640376885e-02 -2.098365499048424065e-02 -1.349901245725875290e-02 -2.015344473239497752e-02 2.632577195861865449e-02 -1.537857619333094991e-02 3.934459705135633090e-02 -2.203721435509021012e-02 -9.347318452908780217e-03 -1.021774998904403237e-02 2.757776242898916930e-02 -6.496217045027251336e-03 -4.279512031360351021e-02 2.448345191087804296e-02
1.863830811330480924e-02 4.203641129012564148e-02 -2.545975774978694386e-02 3.404550068768129323e-02 7.822172524296275298e-04 3.355868185026610051e-02 4.157151224283632540e-02 3.290905150452272387e-03 -2.971464139735940230e-02 -1.233755598680007226e-02 5.837152166036939371e-03 4.382242502765296144e-03 4.200759931480825549e-02 -2.214806338246116599e-02 3.389113221056827552e-02 1.916125183602726545e-02 3.640061460707902374e-02 -3.835424108752316652e-03 -1.828158573529214612e-02 4.636678043715397601e-03 3.878655137296596611e-02
5.366933900541971669e-03 3.859012763813980673e-02 2.507976512588813711e-03 -1.044778647813468520e-02 1.517878391879598499e-03 -1.118894655113771702e-02 9.809133336812450588e-03 2.099320773536643425e-02 1.814188273193290818e-02 -1.633408345522261926e-02 3.140825757750712044e-02 -3.487105741447003859e-02 9.859955447493809477e-03 -1.093395391701348918e-02 -3.029536952708388603e-02 2.320898227058429408e-02 -1.477641673374256726e-02 -5.575352810507396006e-03 3.548981042621232596e-02 -1.707851767833674234e-02 -1.058302415034129834e-02
1.524795902016808785e-02 -3.695099568001443402e-02 -4.279020436626423257e-02 3.489836023326731151e-02 -1.141856023192270447e-02 3.175359510293153387e-02 -4.045484060248263208e-02 -1.714593858998794337e-02 -6.621116933464891996e-03 -4.013608068339336726e-02 4.262543179539621252e-02 -2.711132056129643766e-02 2.847036513150148773e-02 3.846767092303630953e-03 6.714711036277104528e-03 3.436357758394417705e-03 -1.398150614698469990e-02 4.320696751864155916e-02 -7.610910640936871530e-04 8.464486004568595734e-03 -1.588628425845880002e-02
-4.238449144395005364e-02 -9.536988472580977538e-03 1.668976353480613323e-02 1.341793914720258718e-03 3.203044482088825140e-02 -1.104599920986795020e-02 4.059959019602918384e-03 -1.263959076706171886e-02 2.914307124726352172e-03 7.226594764006964711e-03 4.172014450325996215e-02 -6.842481088035153036e-03 2.878735291622970538e-02 -4.159675186208190711e-02 2.242996603425775892e-02 1.416792077841025344e-02 -9.161439772049848052e-04 4.276116345481155434e-02 2.710590943728601043e-02 -5.424233661746401258e-03 2.034173664833918704e-02
-3.426970773248418090e-02 -1.842414728619700195e-02 -4.125604373137661818e-02 4.075323529355134866e-02 -2.857882303428885273e-03 -5.258216085705917642e-03 4.257283641992157253e-02 8.684735439033162974e-03 2.824542522878190076e-02 2.918890722054949538e-02 -2.027453454715473849e-02 -1.863677798991829684e-02 -4.907450705755378451e-03 1.565981833639648602e-02 -1.131219994736937240e-02 3.638632260286804587e-02 -2.642734861158880025e-02 -9.517185131937402898e-03 -2.347354497433789405e-02 2.044079401153155173e-02 -2.555628753089713920e-02
-3.523806317845303016e-02 3.475079638626861478e-02 -2.847319599680710189e-02 3.477910513203935627e-02 -3.064776930983241846e-02 -3.074531905170957424e-02 2.352259067898529454e-02 2.176264398941461786e-02 1.025592829070392370e-02 -1.042498463513930745e-02 7.377847263271640477e-03 4.115053153205885939e-04 4.075749395900883643e-02 1.661472298205757259e-02 2.833597789367441055e-02 4.836949884441825442e-03 1.692612090375492789e-02 -4.356055525846390386e-02 -3.631469418213410794e-02 1.398659740267445967e-02 2.536818441939349411e-02
-2.171877112974869573e-02 2.947736380669947753e-02 2.842750151914122392e-02 3.190992953437235546e-02 2.738665371969761786e-02 -2.126427342047744820e-02 -2.143495877586346077e-03 -4.937180146389295865e-03 3.117394941262688346e-02 1.708893026214048511e-02 2.040086316424288837e-02 1.562500499589318526e-02 9.463947332351965724e-03 8.998937808961916807e-03 -8.661008349554050190e-04 1.486448054477600839e-02 -2.992883525862043148e-02 2.772225349109047610e-02 -3.139289472126701591e-02 -3.045320353945531189e-02 1.533636353735979424e-02
3.010745300242052835e-02 -3.107866369066596829e-02 1.132456334325703667e-02 -1.309268854416781314e-02 -1.409956482955477403e-02 -3.353002391058977627e-02 4.270921956359002847e-02 1.263359920335695163e-03 3.566982583763565751e-02 2.026444424645963693e-02 7.174026857659422662e-03 -2.834637883989505822e-02 4.324718843538272184e-02 -1.977653760433294161e-02 1.612109771143170611e-02 2.869873530504452042e-02 -1.530639705056863892e-02 5.231950364520371322e-03 2.559210876015451108e-02 3.197804157648742596e-02 3.496114657163668094e-02
-2.556304707955464606e-02 8.627526655943879019e-03 -1.930638529698797817e-02 -1.179649018182536702e-03 3.551501867390297051e-02 1.826645425307274473e-02 -1.370122162440181798e-02 1.326013698020517273e-02 -3.054124257223874567e-02 -2.532402391036150946e-02 7.346797439217400694e-03 3.053435233075688093e-02 -3.708071553160520450e-02 -2.776126955472310240e-02 -1.996846711718886641e-02 1.476974790816164285e-02 1.057170512847014493e-02 2.261221243331133779e-03 2.729739520911353412e-02 -7.788219491982328879e-04 -2.355988980413878386e-03
-4.132491323942682343e-02 7.002523281849477865e-03 4.039934582085104309e-03 4.288012910290117663e-02 -2.487484345359579005e-02 -1.453603564467009779e-02 -2.367693571723148913e-02 4.101575215041201872e-02 -4.009463404570367401e-02 -3.989174011001227899e-02 3.308357755686182344e-02 -7.063438674263573802e-03 4.088313188881947946e-02 5.585244309690665099e-03 -1.211127580139605142e-02 3.991039078724747946e-02 -1.960928690947341679e-03 -1.105202165342764747e-02 7.170217280897880907e-04 4.303081415999877868e-02 -3.949470018028190116e-02
-2.540368562642553868e-02 3.998073959993130033e-02 -9.469322751017146544e-03 -3.853283130008630653e-02 -5.377405128480984564e-03 2.733919922880126419e-02 1.301827330077567901e-03 2.732005309946200500e-02 -3.031141989458772251e-02 2.030676891655415484e-02 1.615993034815829676e-02 1.625032320572879219e-02 -1.598602023658907481e-02 -7.440824804587020669e-03 1.359328505429777817e-02 -3.661144882728623040e-02 -1.693245940337421984e-03 7.081047312281943396e-03 2.721551385320369887e-02 1.147999385684116830e-02 3.249570072652913089e-02
1.702493251704810528e-02 -3.499881350720734224e-02 -1.531980118135163604e-03 3.972617986303156323e-02 -3.063349910039069035e-02 5.560248890890580331e-03 -3.333863436379867068e-02 3.375275138381973739e-02 4.357856253734815333e-02 -3.201584816823083157e-02 2.933674863346243111e-02 5.471782922782879310e-03 5.108845049672967875e-03 -1.944473143924829381e-02 -1.515412984660197832e-02 -9.890977511540686995e-03 -5.445741269623209646e-03 1.440550497709469635e-02 -3.652358978102887566e-02 2.662500562863683029e-02 5.557775466743866688e-04
1.235205693941798799e-02 -2.081441566453007957e-02 -1.122406233575628381e-02 1.742143932116340527e-02 4.142132747289148376e-02 1.157939046038174852e-02 7.104514578510807976e-03 -3.787380298754242092e-02 4.364656096850434708e-02 2.117231800484156712e-02 2.111715867715982520e-03 -3.987935100627871404e-02 2.008162154564221979e-02 9.958119977411014623e-03 -7.222735252576106824e-03 -1.880844277207033288e-02 8.653144941701856885e-03 1.059837669819013728e-03 4.030428968834381953e-02 2.219904449473548980e-02 3.922038926743948162e-02
3.997232023655605815e-02 2.503550407047577808e-02 3.621342436938562726e-02 6.376740886050696888e-03 -3.791725065902552122e-02 1.017478065555896261e-03 -9.703962350713198071e-03 2.173524067782575675e-02 -1.702748621588657738e-02 4.019413839279548095e-02 -4.274752223368777360e-02 2.482528689000937372e-03 -2.137155855585042008e-03 -4.234270851996813773e-02 1.684653290302140505e-02 -2.138528516305360921e-02 8.851644879273964928e-03 2.940483181915527766e-02 -3.440533649232912355e-02 -1.605922490442865738e-02 1.578792423515899129e-02
1.274985116676737029e-03 -3.053463274549972351e-03 -1.367007895626551686e-02 2.185816099316420513e-02 8.737746295545918696e-03 -2.542791408899641378e-02 -1.267981181938427140e-02 -7.298257267099414469e-03 9.421213768993616511e-03 -3.188845001800390266e-02 -4.066684296325653175e-02 1.666243588372642165e-02 2.149822183764213412e-02 1.198855450187900906e-02 -4.016329702538776886e-02 4.542879934670562836e-04 3.252371165522938146e-02 -1.569760704628173423e-02 -2.465596377171399775e-02 2.075754821501901715e-02 -2.190144318498798287e-02
-7.789218828890449864e-03 -8.834831125930926732e-03 4.053923999256435484e-02 3.899640041820094660e-02 1.581784667776316156e-02 4.192214541563304975e-02 -3.754471895297123440e-03 -1.074831395376230070e-02 2.428916978081396838e-04 -1.323418292491260195e-03 1.773206012014507532e-02 6.552178436654607085e-03 4.280795660399998315e-02 3.039272516683856618e-02 -3.642826448829494801e-02 2.449490561636551156e-02 1.605380764931799153e-02 -4.096196159316288499e-02 3.972386186479268111e-02 3.398752907681749924e-02 -2.526450316641169758e-02
4.044237467748691695e-02 -1.953854712371465990e-02 -2.306660395342926412e-02 2.366474356573187998e-02 -4.732088702126838187e-03 -4.165120882405065617e-02 2.541374179513580800e-02 1.331180648454315801e-02 9.597359333494370759e-03 3.444140256225272645e-02 -1.505765625093210408e-02 4.248420905587467489e-02 3.353074185662253959e-02 -2.135625610548764000e-02 1.410299219277897503e-02 -3.105198695845905188e-02 7.165494964416971313e-04 3.841131381595742911e-02 2.548557399382526956e-03 -3.692191814366343333e-02 -4.293692966838498493e-02
-3.541455647211878832e-02 -2.033126979090800132e-02 5.575443037230176646e-03 3.360925932346016387e-02 2.271120694807594875e-03 -4.035305027507499892e-02 3.748538827332797974e-02 -9.514735939795182507e-03 -8.353861069811722995e-03 1.452871882929245018e-03 -4.740787723396117093e-04 -2.597293142342508437e-02 3.896820432367463505e-03 1.162569609235289403e-03 9.042578677809290366e-04 -3.164553985591066904e-02 -3.138210456785146818e-03 2.911776551663071422e-02 -3.178025488252941150e-02 -3.730490272365929311e-02 -2.768741490693782392e-03
-8.678893949017198184e-03 1.126425699219699150e-02 -2.136477050932746730e-02 -8.085032100586704573e-03 3.110754276224148018e-02 9.685761183406332853e-03 -6.560119256529772791e-03 -8.246031031277925583e-03 1.517458188496449700e-02 3.678397932391527791e-02 -2.845300100464585868e-02 -5.992332174021182400e-03 3.187121039597114180e-02 1.550339106224801061e-02 -8.248101278136375780e-03 -2.124981110426426081e-02 -3.268694158521490839e-02 7.573820707655998241e-03 -2.288108383741351698e-02 -9.711800999183076155e-03 2.331809202390394686e-02
2.081079612592103001e-02 3.393861880611666326e-02 -3.430603656516799382e-02 1.879087843204076819e-02 -3.741775230209133662e-02 -2.883753461892898592e-02 -7.420473920688314129e-04 -1.013250206876108866e-02 -2.320254157865446476e-02 3.368878070571321159e-02 -7.187880552070598228e-03 -5.088711374847808278e-03 4.408993240390401969e-04 -1.597729600678811715e-02 -8.760007759294599627e-03 2.110962159293905405e-02 4.157327407120345319e-02 -1.918282480312017910e-02 -4.227362523678459411e-02 -2.538066680751521753e-02 -4.150135426597900690e-02
2.199527737530415639e-02 -2.408693753488830996e-02 -6.552419498811058729e-03 2.148858544423133676e-02 -2.168690639827548436e-02 4.141868686031384417e-03 -2.678011635035913024e-02 2.114707889026114229e-02 -6.008138000021610858e-03 3.800046205742833860e-02 -2.261773782780122921e-02 4.089567330764051767e-02 -3.377645089764409747e-02 -2.871502897214471550e-02 1.518577395351675130e-02 2.333002867174066575e-02 -7.515550926263110665e-03 -3.881819905473667814e-02 -2.795407419659702575e-03 1.193844441720194605e-02 -1.999229857231224830e-02
-1.351709606272117822e-02 -3.932077459281978909e-02 7.353942645816576029e-03 -1.775908903629302982e-03 3.504443960785200152e-02 9.736569534613777332e-03 -4.773821661124305615e-03 -4.299077220930341836e-02 2.010745256034639217e-02 -3.600025636546491659e-02 -3.141385365593578338e-02 2.068157007417040227e-02 -2.522669505076048993e-02 -3.879015900570895181e-03 -1.029624975132156783e-02 -3.876304357782560384e-02 3.901729692881117373e-02 -3.778898047662457294e-02 4.107939698113534377e-02 -2.509571008881884488e-02 3.049099194914514643e-03
