-9.709343511957714556e-03 -3.029687649784462353e-02 1.053316859962044605e-03 -3.751492141004330455e-02 -3.170133101998558883e-02 7.200945467447317228e-03 3.935463781552971108e-02 -4.294654856105643848e-02 4.130984374005332305e-02 3.073609397948612321e-02 1.359265973053756793e-02 1.193470183627269587e-02 1.697548295464112317e-02 -3.195916473347155951e-02 -1.012888761181589270e-02 -2.998623030418642171e-02 -2.215578756945942723e-02 -1.540394390601557140e-02 -2.039734884610620164e-02 4.624534976926039653e-03 -1.837046971030722314e-02 4.344492589053941534e-02 2.917110909277119413e-03 -3.666002040665070072e-02 -3.574934553376959978e-02 9.409097847842086415e-03 8.658561356267885367e-03 -3.449807968974845374e-02 2.703366597935669136e-02 -3.927138234269010597e-02 -4.002056135614504018e-02
4.002485992730117625e-02 -2.663094271765261215e-02 -2.209607271828583838e-02 -3.977670233654865412e-02 2.782807312867521810e-04 -2.364906308862279108e-02 3.736943091127105376e-03 1.700046830541413617e-02 1.449535225205083461e-02 -1.034778606057367573e-02 2.773693311217471924e-02 -1.280425820436165152e-02 -2.992806188854903876e-02 -1.492375144475907578e-03 -4.353510535415278798e-02 -2.025571587019149231e-02 5.699810895633539154e-03 -4.249890617948579724e-02 3.597693966727838477e-02 3.930819285540898544e-02 1.477269810749586715e-02 3.992774770263374240e-02 1.499154130350477399e-02 -2.985590655047428571e-02 -3.490055968033700662e-03 -1.437617718141701029e-03 -3.726419500104149324e-02 -2.338234630492918784e-02 -3.518770147685846422e-02 -2.835670646185863703e-02 -1.457579829644636837e-02
2.439892535942625451e-02 1.900325946254903531e-02 -3.905523527845585624e-02 -6.926196155808875266e-03 -1.612291006428090770e-02 2.925732159678874622e-02 1.479160696419612453e-02 -1.501294606998659562e-02 3.364327861649446527e-02 -1.943030048015409461e-02 3.076130169566433648e-02 -2.916705616508188242e-02 3.054682834730498842e-02 2.014459389456171867e-02 1.591030202778666996e-02 1.190627133045623481e-02 3.530652138336876078e-02 -2.042609038041645272e-02 -3.606606543933722764e-02 -1.150254073839701574e-03 3.974898488202573132e-03 -5.960055726658232411e-03 2.471837679290507517e-02 -2.903145882114638657e-02 2.185944411772687557e-02 1.475096615268116362e-02 2.423024389265383827e-02 3.267998036265069850e-02 1.869818556903406898e-02 -2.360803474923750533e-02 -1.973844729422378694e-02
-2.644770513481166374e-02 -6.780359735363367113e-03 1.474585720901432084e-02 3.751859709052066116e-02 -1.590231579939718407e-02 -2.976733506262627116e-02 1.281076496284112159e-02 2.531093675199784510e-02 -5.689591878589951579e-03 3.882215241728982635e-02 3.140012886113816015e-02 -1.925828496086593941e-02 -3.541670825090603714e-02 -2.006224110100827962e-02 -4.316086427665961900e-02 5.957825941165097172e-03 -4.033884019224022455e-02 3.651388143632845751e-02 -9.743217509605356375e-03 1.325674311816970458e-02 -3.697112574012245689e-02 3.174917919609837602e-02 1.674909914741500722e-02 2.502893244695345021e-02 2.002150792615693675e-02 -1.847842352984089068e-02 3.546434292776179387e-02 6.206312137923032657e-03 -2.833717244579206720e-02 -2.129384580140793529e-02 7.293678001338933792e-03
